-1.5580029867203056
-1.6286507091944151
0.11601190364878179
2.0732910782614984
-1.6039697534522805
0.00405165413748732
2.5316254129558438
-1.2107752414650206
-0.9056000407995466
-1.6970718254224486
1.9960862580259686
-0.15269424301561982
-2.2785754432081724
-1.1338930862299192
-1.6925640802493804
-0.5846147422258939
-1.7014770539353206
-0.10988987171501598
0.42407209726789513
-3.1414116471752833
-1.594926476633944
0.5495887525170451
-0.39257264987472423
-1.3665285409053154
-0.44411452956915676
-0.38067405033608837
-0.4294696183173358
1.2510201032913117
-1.7311116816377023
-0.36701775725446395
-2.1592109209391883
-0.6237148473387208
-0.01462871822247883
-2.165479614216098
2.6358497562608147
-0.42464077094627556
-0.46711594592658584
0.4703925573084692
0.9748871952991699
-2.0808855560041373
1.8544965568343015
-0.34923940487419436
0.1532634029915137
-0.2929191550700341
-1.0824514438986035
-0.3958818589935352
-0.3929268276887075
1.1220650979525129
-3.2588781748665387
1.5403470093411191
-0.7207701900746153
0.4421276713795352
-3.3548509884441895
-0.5674627860477274
-1.6163102026131277
1.8301956691921415
1.3927846366700503
-0.3713735039664525
0.3085219064373204
1.489614968766568
-1.0757618528581319
-0.19949062612367247
-1.4798029227187377
-0.6643214511395126
0.18593011437483856
-0.8762804666356082
-1.257106988083501
-0.09270899009492949
-1.1444027881443426
-0.8127740337491485
-1.1227947266363236
-0.29420511600557736
1.0678957558122217
0.37776790864651844
-0.5831274309276514
-0.6971693458466073
-1.6093896213233576
-1.2660662747016354
-2.4869285350066286
-1.8293167443110099
-0.9654621833463274
1.9206718931443365
0.09334194803456194
1.1943562012507996
1.1220692893460957
1.7915178322399097
-1.6806408800293522
-1.4250545428799293
-1.7623801913460448
0.2917480047455839
