-0.3492654199105344
1.3282405160719213
-0.18482454488904307
0.9711332451752128
-1.0157787531120661
1.253397386288758
-0.4718238415646339
0.04603198496566377
-0.21292274775824183
-0.8040719882639817
0.17637723585889245
0.3238444854866003
-0.7466472104613832
0.3744454193622314
0.14311294121395055
0.5427805493021676
-1.1306821285399593
-0.73661587152861
-0.39967150468670504
0.5932279836012473
-1.1784795197418183
-0.02273989350299943
0.47283705381347346
0.08892637728635777
-0.17000919933191594
0.9392752291158433
-0.11693383435198912
0.4756315830554508
-0.46948996279013394
-0.8204243379219913
-0.2896869151891888
0.12540793923720467
-0.7271479786876622
-0.9503354234652248
-0.049902016771013954
-1.0812864479945874
0.8278018343131517
1.3758805334728301
1.352138160155615
-0.21961280181945683
0.21261124407014895
0.21835209604549224
1.1232928929203196
0.5200438695906848
-0.7920346125738721
0.6655506494901979
0.8247398629323938
0.9051676679612941
0.10268721956869574
-0.7453556031856784
-0.06851497681610683
1.225679712414572
1.2853548209033379
0.6694116786928178
-1.0309639809502489
0.349580595105469
0.5294801248592755
0.4175444426176443
-0.7142566369544917
0.40347526954467755
-0.8081574413175742
0.3848285350517119
0.34842377043488976
0.7169000231675731
-0.7749320635133867
-0.5351195123816355
0.0511063912190548
0.7448180439683192
0.015033939632966842
0.3048868131173127
-0.8050931941760311
-0.6244455242371223
-0.23125203244587034
0.18277301453736755
0.6100484297375621
-1.037890491065109
-1.0989990775182503
0.43323971964183605
-0.3070467264900895
-0.2047442262295236
-1.3757066057113214
0.8981798824113437
1.009885416937904
-0.536708329143121
0.011626762945997926
0.1579987361927749
-0.4047091892586492
-0.035892272524967565
-0.15745417589252417
0.6435284535020807
0.7984484609745445
1.3974278732157874
0.3337890095456324
-0.3652122872735391
0.2579124391769408
0.2371319243543551
-0.23710949622211874
-0.2955239699422608
-0.23303655190645947
0.34483249844444175
-0.5864087901177604
-0.29544951264361263
-0.7869952003539717
-0.7676683388181972
0.9699241534828922
-0.40654121036984764
0.45500738828474085
0.1809821019764805
-0.06786848922767474
0.6440167407172414
0.5582104889669801
-0.5983478331857162
0.35548218955666894
-0.8260076082324006
-0.31174405366813795
0.39207720149089303
0.3246452879426407
-0.3096241868807641
-0.975862765766383
-0.19469934768222147
0.31017590670812234
0.4755125394774694
-1.293053223355524
-0.9723487953100999
0.31003548472287495
-0.8428047679447724
-0.2516294493116965
0.42448448233059605
-0.7879069724317074
0.7995659105603854
0.8210874933467401
0.7440368082924281
-0.47797647932247345
-0.00811082993534928
-0.09444389406570451
-0.9133947672641768
0.30623481186844775
-0.576270827369205
1.0479158041809544
-0.5484015287265086
0.7461183157285334
0.06279694570137047
-0.5828903003099332
-0.4417061413694393
-0.257548177800916
-0.042963718336031756
-0.4087265439750922
0.2624374716620006
0.6074797145212133
-0.11418798039150335
0.05340089858592721
1.1213573110281536
-0.190363897333601
-0.01769058992065784
0.7037837248275196
-0.3809518865035555
-0.42872018078935525
0.5078441268196857
-0.6025418637915707
-0.9403425935362234
-0.3076891579721258
0.15430010502711478
0.6385039613906425
0.5095651526450847
0.20218373745684992
-1.249437658333574
0.7697262227258166
-1.084260265499916
-0.6461922420022972
-1.0820469664297403
0.528249894015783
0.020011580359674725
0.8186030591587767
-0.3538997928911365
-0.4460226642258109
-0.4641664539991473
0.07175365694904938
-0.7691984458275996
0.5686984586289658
0.37706418843491185
-0.41874234679050587
0.9814280788732967
0.3135915217185161
0.1602071711460138
-0.7756408476956668
0.25542723014750424
0.0036921265774861405
-0.1933847981850912
-0.2664587205969854
0.36562987800177854
0.20585689096553336
-0.09982349473060934
0.14231920798453848
0.13265293442106982
-0.8496614164386176
-0.8600558773082974
0.3620845580984167
-1.2008398365042847
1.4069912700620772
0.5617626288476775
-0.4785835079612422
0.88861127540855
-0.12526669902822363
-0.7614408841643001
0.095572209745087
0.02656484814671916
1.486442472714694
0.5525331103365685
-0.21142061626218453
-0.5775756129903722
0.3121105340835497
-0.6326835070961213
0.2896090385947831
-0.727666880624649
-1.2606331838337075
0.744418078225553
-0.4523989270530495
-0.1838716223591618
0.04095889135613495
-0.8523713480028756
-0.16347882835820696
0.05307712785148076
0.5800109594117897
0.27629278664491047
-0.4470341512693179
0.44274800783999513
-0.22448902233909174
-0.6744572398946413
-0.3646987427991404
0.4248522065025428
-0.7258582244391649
-0.18321132721011227
0.7446005413491625
-0.6603827741795693
-0.4771483391761164
1.1013263786469158
-0.4491857470859539
-0.3391784210341934
0.5904559994673625
-0.11279671742806546
-0.5228551449315253
1.0386080893725942
0.12201180457131829
0.3770888595633069
0.18335415640251274
-1.337338267542288
-1.4268874901683122
-0.6154895091267273
-1.0211730691376368
-0.2265171018378716
-0.38494971504024333
-0.049570082898308596
-0.8864554860117817
-0.2570125841110635
0.060510864120892904
-0.12407602064125342
0.27607056840148264
-0.4890809665538603
-0.7379618655197173
-0.5742977958246321
0.3106666002848353
-0.020791316003917065
-0.7365845985318965
0.4129955193810489
-0.3293986966366633
0.8885330587305774
0.7365517244289803
0.6800344425760563
-0.13279006660260448
0.4981026181719758
-0.572538093813049
0.9857041195406611
-0.15968058756112524
-0.36602389389635664
0.5682335906735185
0.5223679170369324
0.7213327692945818
0.0765333846363959
0.6406401938249086
0.4036410420290244
-0.475890801252175
-0.5167268700929514
0.8111583523514749
0.2135161659057453
-0.18477384431850205
-0.5424669207576617
0.06019455406037096
0.14856780303564968
-0.6707774996542701
-0.5875478602964033
-0.4244083662149303
-0.02186591055299165
-0.5411602202934619
1.1772376898499508
-0.6137030239134127
0.4095322299846541
0.5073275663934879
0.08511037091011052
-0.05009352827521226
-0.18014715072199605
0.04964776017970632
0.4482261337286791
0.5011536519736833
-0.2738041872400227
-0.8728622661309686
0.3950586871239908
0.8564519094717187
-0.48418797224781446
-0.7846355620580254
-0.6815813715730019
0.03263872026739899
0.1654320702451595
0.859164384726097
-0.9264357395362777
0.28463526545825873
0.7440564299711162
-0.8033957666017058
0.4391462980336427
-0.26021734481376285
-0.46571063248141403
-1.0879714204736302
-0.19046661751513422
0.05441470912139161
0.5883669336510668
-0.7356541469281573
0.8605514387170501
0.7628404237267377
0.345462915018051
-0.9013922172779899
-0.725651684583946
-0.8934931785486118
0.772297316623167
-0.4243047861830429
0.7735423723333749
0.24798744829005598
-0.5859856449129142
-0.002133071187627585
-0.38162055979918175
-0.40061244267983603
-0.013679588146663146
0.6518427520187502
0.7055161524577178
-0.37679382187739263
-0.8019286973925354
-0.8752378542643545
-0.8481108758808154
-0.6972197061002781
-0.3119946242213334
-0.029254329362268086
0.7460547489120878
-0.4124832932342236
0.6970541696706142
-0.8992686524585585
-0.553989719541245
0.5324795786787436
-0.8145147028350168
-0.51223952713857
-0.4627030462090399
0.5222407863582641
0.6904191885113228
0.7156787751652829
-1.373254284963499
0.18268669450865757
-0.378373506336961
-0.8973355370602388
-0.28468853706811414
-0.5932790082672549
-0.8643167296435368
0.503601187564055
-0.8286349343364638
-0.510836127583307
-0.4797367014431255
-0.30217572551106453
-0.24094781952204347
0.9211854224554452
-1.2493773517958446
-1.5278567247970396
0.7119810429749427
0.2900381002596743
0.45200646493614927
0.7359104025256114
0.00266205568044439
0.13197031538826776
0.8943717071650342
0.13528173172257224
-0.5647799879344326
0.5956826610738578
-0.2662266164130933
-0.15727528822935058
-0.8378370913285702
-0.9975901363493114
-0.6017985801020039
0.2521158840324784
0.6603118500214322
0.71735814434586
0.5292155229778025
-0.83880195851796
0.48641236497818685
0.09595326898905365
-0.4092347485830445
0.2833550770237467
-0.952489926357963
-0.10085484981295184
0.025511509668245863
0.3840211022989872
0.3326780755584588
-0.5752968612436089
0.18913628257203788
-0.09098330087894327
-0.6890641710190104
-0.28570894532775876
-0.6072655308590463
0.20856553671329334
1.0132523609722672
0.23449212885401677
-0.3485062426037792
0.5198623297299585
0.7557495913409774
1.1291087754990143
-0.9983990455553705
0.5814602775166597
1.0974421765526647
0.45462826930967903
0.7021515702854005
-0.2963382549560391
-0.0538332557181936
0.15457332806834856
-0.1844593724976203
0.9641010676575796
-0.592064026254251
0.020355996286447027
-0.3335143490523431
0.5038565096070157
-0.9031691619058183
-0.8072352142972584
0.36219340487712215
0.6268637223840838
-0.03363136070971784
-0.25327319063905723
0.2087630757649592
0.0943304152404913
-1.1158872010378242
-0.7060924124419362
0.09976129233967772
-1.1079868433565299
-0.2757445435100746
0.6691282733430824
-0.11150728361578607
0.2588893634117873
0.5426834270515742
0.05029666789453437
-0.5316698074361368
-0.22035297016163335
0.6717982409566433
1.1320266677558664
1.185833921206367
0.19723480115710726
-0.005422907452825687
0.1811768255258847
-0.06272261694523543
0.08423445968808509
0.3807490252921977
-0.7392232055195221
0.8271397720035257
0.42610560878217224
0.004750668616544844
-0.5362153374812231
0.35957127902852
-0.47879796117804896
0.6562193729516529
1.1184223126206774
-0.9378295231452327
1.2954591042045687
-0.5241956684291986
1.0771924169952751
0.6939040953726497
0.13666905767260001
-0.984123124332441
-1.0264471336595133
0.2490771898664844
0.9720906789110368
-0.3543319562936796
-0.5035129114076219
-1.0186083395573837
0.3146729580355642
-0.4086403947249218
-0.5207824815290946
-1.202534583876364
-0.7186072144438664
-0.558945264009735
-0.5369691753061394
0.8132676603550082
-0.997654926374784
-0.4516776744421475
-0.47782118533856843
0.4270641103326859
-0.3619539685089152
-0.7744250421364385
-0.7454067731179126
0.2011084547584696
-0.6008258041358148
0.9536079589263162
0.9888665137948272
0.1733801387959649
-1.0205033735061573
-0.4761126993740764
0.04023749682136735
-0.8310381491041035
0.3937508944054955
0.7092716898992106
-0.6982610604354751
-0.3236370269633516
-1.305175789199808
-0.8334908142715639
0.17793814375201333
-0.8391436971982621
0.4414823292262542
1.409048928644682
0.4721253343682936
-0.9517746425663695
0.7596184966387843
-0.37682784283832926
-0.16239935181817292
1.1716442424180744
0.9685207469155336
-0.002690306993465669
0.7884988857352035
-0.32378847017546736
1.2841984917698677
0.9425137132385258
-0.11298016032734631
0.4377617938349512
0.6488303918467737
-0.15861187155741163
0.6028169428431646
0.13019711831137057
-1.18829053431963
0.30801184704943196
0.35622811305562124
-0.22966212944770714
0.8071790921413381
-0.5006645734774431
0.1588086320310167
-0.6474609579704652
0.6727152304420138
-0.9675121572823716
-0.6059456836164451
0.01067804982590277
0.9278986544936086
-0.2470800114810736
0.47747112533881203
-0.21757903971606676
0.3632673288916375
0.9166193587095358
0.7188793226895702
0.6943807560757695
0.4864487209851023
0.5158634737909915
-0.17320120635423147
-1.3010719963051396
-0.7154012985173676
0.31703820587044923
-0.8580768236979861
0.3390097082646834
-0.01596155424265772
-0.6776323749735707
0.16311826184584305
-0.06155584927727841
0.16761003464874058
0.9492730531274295
0.9190937502393176
0.42507527392516514
0.465066129488252
0.8376011356573135
0.35718828708549655
0.7946847465651122
0.2701710448148193
0.16328554531172287
-0.20827761147747736
0.4670824506251057
-0.46096086630001215
-0.17114505381949174
-0.8503032040306633
1.0598842968655515
0.057083717642239094
-0.4488179764593519
-0.898685768588749
-0.9528789987850764
-0.7798894313271476
-0.025899968086903057
0.548535411353267
0.2371263476701804
-0.29926877833403864
-0.4664094314115159
0.26808870558532666
0.3710623748914375
-0.7779410446136501
0.2642114207934382
0.37004525541157696
-0.6661641609777567
-0.5807281798955248
-0.6564844480036734
-0.6648907091956393
-0.3703569118231612
-0.3048055117876239
0.1280753963429192
0.5897402344543441
-1.1576201429585484
0.7242489341860776
-0.634997310946614
0.3701645777928892
-0.24318555215278403
-0.9268456025211892
-0.567274606402022
0.9528646373282752
-0.7734977799076261
0.3873785941613339
0.35448988985659863
-1.1845974249229743
-0.9648977669026317
0.32912805077083723
-0.8315451721986763
0.481717245301894
-0.25249781747271394
-0.6592884635381304
0.7085470494259658
0.6041714827693372
0.6601527945470644
0.714572562839519
-1.2282340753414922
0.8079010145674527
0.33751854436910317
-0.6971516191597804
0.9571197626958545
-0.09593079611036279
-0.6657980459259774
-0.8294590975443987
-0.5608150578228239
0.4749164002437588
0.5965200329127617
-0.18068070513698
0.23213844051213114
0.17291101588208796
-0.23490739866184293
-0.45743122329343816
0.5971903257036271
-0.6170042046464124
-0.09440815470039855
-1.1157785507840199
1.0025212132413306
1.0892371757027892
-0.036510338430114926
-0.3615621594615314
-0.10821256776931905
1.034328016562657
-0.48337982028906556
-0.989213835170487
-1.0118998011675624
-0.5442687990761527
0.9866252205852075
0.08606655417436203
0.6313855653159047
0.5134821028434541
0.0433237906222006
-0.35168182245670493
0.5615997202737499
-1.1619080639133519
0.18291241320633872
0.5977103998881792
-0.6002075360621197
-0.7572352211969867
-0.010711731575647754
0.5064861212851272
-0.17102512352121735
1.3396133577233569
-0.004001950219852114
-0.20895730341465035
-0.5596983738671499
-0.6657280495630512
0.8071770092920533
0.20037689071631748
-0.1346182055133918
0.6609823945455138
1.6253150516654218
0.24543936970883015
-0.11226464109947233
-0.6149785422287648
-1.1978033026045525
0.17005403541019473
-0.3739424483868918
0.23000443407880636
0.6299725073405292
0.05479694184838913
-0.08079660692107551
-0.471877385328066
0.3765422775829179
-1.008353355332426
-0.5582220786037165
-0.10318307175891064
-0.4119280601058423
1.107888293501098
1.5685185472791223
-0.1493930388968555
-0.02227894901943047
-0.3732613564249947
0.8567094501912019
0.9780290194667197
-0.4813695487713838
-1.036266679960931
0.23931973182383817
0.15648519180090378
0.4160132753956186
0.600602781496793
0.29018001821822087
-0.9225366984362686
0.6610138530869044
-0.06481256498097077
-0.1532261040916002
0.8450352876898375
0.07567030157366535
0.2107758207404861
-0.9037929487282074
-0.43879939293360337
0.879376853422538
0.44841019943143634
0.1340275678453363
0.6494204904383941
-0.7190123900420141
-0.42139575557494385
0.8023154127959063
0.2638768296018544
-0.4578644721739095
0.04291423240556968
-0.19468432980226777
0.5127172269836592
0.3542879591954427
0.4705845654127199
0.6412623947934034
0.6944731822510614
1.4712845590657384
-0.9044477940433615
-0.9915424372001638
1.1337084886448963
-0.8369157105968656
0.4104764481316343
0.3605095511953813
-1.0159523055350688
0.8135849077559062
0.6120034138745644
0.4191592863555342
-0.0981788782955304
0.12280936722053688
0.27210669957761735
-0.08462273643683009
1.3004240029282432
-1.3908069043059763
-0.20729140639113267
0.5743049356605858
0.3807790136529592
0.315454178673641
0.22170989154502063
0.5421608664639579
0.3218363011033115
-0.10523685953246767
-1.7787263094755748
-0.8050398110070038
-0.23118592706023966
0.8794948862753149
0.26248788324463707
1.1822791403835318
0.10719168658552344
0.016180228414930158
0.15745931264893054
0.09617437899522809
-0.608136638091846
-0.32171107216735206
0.07941392723071061
0.83912127176052
0.4561434294753791
0.571317520393242
-0.8760261114258613
-0.8539717576622767
0.44299234121138026
-1.0403123947319877
0.48319795596262455
0.34204336494304344
-0.3985558209080437
0.42810993324995855
-0.2639671963725339
1.1157579814683163
0.17994551331614753
0.1940542058956276
-0.08869725857220255
-0.2933688355669288
0.7095564191891888
-0.2937197053142744
0.02829437759610528
0.1815162073561556
0.8823529009880358
-0.11468875556357508
-1.4565593843516496
-0.8651571555538367
-1.0623394341582162
-0.633838069833957
0.6403644691539147
0.14741823979592766
-0.22425328134341965
0.21998160116021412
-0.8824515851666878
1.4293579509832912
